-1.06958472675291305087341697799275
0.08234915674554185716083054558112
-0.57880202359083221530511309538269
-2.30534978318791639040341578947846
-2.16420494764691806466316847945563
-0.84926444059052308421797761184280
-0.09336338297142653119831123831318
-0.15606770223572291600433459279884
-0.71873227339214207365358788592857
0.23261558872952509124942821472359
1.57971496938865119119554947246797
-0.90098579050774518783839539537439
-0.03224344855078856847407919872239
-0.94271842877472034061270278471056
1.26745183786384396640301019942854
-0.58943688292489937463614069201867
1.37137671466959609745117631973699
-1.15449866872827633379472445085412
0.09866072872416049854837893917647
2.46935231014285427875165623845533
0.44398461629986252230395393780782
-1.05131132697719897883814610395348
-0.39686135820829354647898412622453
-0.80026382925851913263670667220140
0.52601623102025663047953685236280
0.81093556517292120222606399693177
-0.87768725029024374784114570502425
-1.38728112859535190892756872926839
-0.04120224822391178182146020958498
0.57238741340518051181618375267135
-0.04622241158894393325828886531781
3.30950131899163801918462013418321
-0.93627948802747751333441783572198
1.64143202319040470982258739240933
-0.30463174927526065483007755574363
0.96162125154624389367086223501246
-0.29275201925489419130244073130598
-2.28003341646120949448572901019361
-0.41673890714767458653966514248168
0.86573771044513503358786010721815
1.98768807791395207829054925241508
0.42065985667391314617447051205090
0.50048351330411533499642473543645
1.60824482375506394582487246225355
-0.00710264890253324131935697138829
0.10566375183136746118695015184130
1.68483724399200607280135955079459
-0.76048682497518149681070553924656
-0.97191505020142965332041740111890
-1.85745507649244534498222947149770
1.19877348430338503959546869737096
-0.38197356508017177301184119642130
-1.97476975695847212222133748582564
0.17498391755487455179185474207770
-0.62943404858603047014042886075913
-0.70134951239986464965880941235810
0.80139847029070421235985577368410
0.83628028806688681218162173536257
0.03629199120252937782460378457472
-0.03059965931084059065359070928025
-1.02023016443806535669125423737569
0.47089418613074329744705437406083
0.08616131515332052515088179234226
-0.31680841513236296380640055758704
-1.77849333674024667750757089379476
-0.88291331483873958241304080729606
2.11074355381481870708171300066169
0.96446900142627067786804673232837
-1.55959734153983342608285056485329
1.49254619972518387527316008345224
0.17696977298230887054586446538451
0.58192122864598194720286983283586
-0.63790393570700654191085732236388
-1.17003394465165810878204410983017
1.16948212409824603419394861703040
-1.08932858376090058172280805592891
0.14264314850231218922971265783417
1.85030965609188657872152816707967
0.52222396585014363434851247802726
-0.64925198227293456909592350712046
0.62140605905546930642913139308803
0.13225098691546036122623775099783
-1.00679683852649337616469438216882
-1.23865383065473544377255166182294
-0.69172033579023062266344368254067
0.32833356660499740664604928497283
-0.65504716394053519312734579216340
0.88816760559179730449841372319497
0.70307054128166246442788178683259
-1.12741752659723859508744681079406
-0.50547331675322537680727918996126
-1.24344247978206201565853916690685
-1.02409542321718705082389533345122
-0.49830016244303865224907212905237
0.02795936308240727988239093804168
1.70371089071046499796580064867157
-0.65257140762066934147611618755036
0.65139845689838127285042901348788
0.34375180233853463995785659790272
-0.70846509812718050369539923849516
0.64757194658270433862412573944312
-0.46708255299750850442208616186690
0.80432256648266831078331051685382
-0.95464803127018038608753158769105
-0.17424226609159715328800643874274
0.45854428126358448558619329560315
0.24190552357594102828031168428424
1.41448253188432637728055851766840
-0.90951120421740427879342405503849
1.60720469349998107411181536008371
2.20429777961551032205989031353965
-0.77677073586899170187791696662316
-0.61402954488685002054637607216137
-0.52166772790611559695861387808691
-1.32653173770329013692048647499178
-2.19839665152623275901078159222379
0.19284526760802253586568610899121
-1.18365109179107030890065743733430
-1.44653900689657111122699006955372
1.03150472039642826516114837431815
-0.20902548947115268118679409781180
-1.26037853458579141019413327740040
0.21221633755016902633805386813037
-0.44895007038061884863111572485650
-0.09093811157867680294852874567368
-1.28641133997260403987183963181451
-0.75368780417918646019614925535279
-1.43185504326928891849490810272982
0.58763662563731489107965444418369
0.89941148073231047543885097184102
-1.46959134197746044137034004961606
-0.29091087683079197567792562040268
1.31393537447845432097892626188695
0.87237862295142720725493745703716
2.40687083020342029726634791586548
-1.02528364397492044446380532463081
-0.28221663254023660050151534051111
2.19266105474750450099463705555536
-0.72712035532396557258039138105232
-0.34438110679541544811854691943154
-1.81522050043248683870444892818341
1.14933575030800882998960332770366
-0.30584132359343008111807193927234
1.80760972661979701925361041503493
-0.99225114296606820030177686930983
-0.05443497407174833352394571761579
-0.28050001596879337029122325475328
0.76556467595778643353554571149289
-0.44511203057807213756547071170644
1.43568790851435057476237489026971
-0.69182090336873758307234538733610
-1.07460914692004494419563798146555
0.49567996830875599156840394243773
1.39353205658811618583570179907838
-1.24506767844514887322304730332689
0.74329449767848132513137215937604
0.69856225162616281121330530368141
-0.11795748703119787736959267476777
0.79086434459000576335796495186514
0.71616782894993447072806702635717
1.00324411186884265845264962990768
0.21388257595473425531906741525745
-1.19940860747241329065104764595162
0.96044341038735370208456743057468
-0.40633256417590973841313939374231
0.33001012954984698666294207214378
-0.69293847576204570248847858238150
0.01418368201931001493232287202773
0.31162635668057858673307691788068
-0.04202927314263488201007135103282
0.67727001317633617194502448910498
-0.03611695684510399240174649548862
0.32991966709888242981207895354601
0.24182073848561000395385178762808
0.09450805776234531829782525846895
1.71782425651502324015496014908422
-0.73458206034491480007631025728188
-0.54278740963204830105581777388579
0.79884064004122667945750890794443
0.19515870051484646152673008145939
0.31393521191770135114751383298426
-1.45975832043771780455188036285108
-2.10471742636249503632939195085783
-0.03983329326755387367331451287100
-0.12431029747518117234417189820306
0.02120913608319848278616071013403
1.44158537131015007659584625798743
0.68549057481831721094778231417877
-0.40866930934017825505222276660788
1.03419519329342812774541471299017
0.16622233821283155519310525960464
1.14149815124949061129200345021673
-1.28501630947296296980653096397873
1.13999439270891333997326455573784
-0.15687408337981528783089402168116
-0.15981681016632884317907326021668
-1.25685603534579515283553519111592
-0.91843483851415386176597621670226
2.85251284704265328784345001622569
-0.48126612040396671288178254144441
1.33460473601154383516131929354742
-0.43014648288843548851190234927344
0.51643633477951822463580811017891
-0.41887750962903125273584237220348
-0.09543230642921038398007738123852
-0.80480953019025480710268993789214
0.98308566914907880018859032134060
0.75701744414718719067280972012668
-1.40225501491880244486765150213614
-0.32159714153352864096646612779296
0.86534122406616154066227863950189
0.18016275024623432110537635253422
1.07331717440159768450769206538098
0.90953214515076974411300625433796
0.72527112518418990205759655509610
-0.14945322255478762918379231905419
0.44973519253568122744368906751333
-0.05849988889210417514208373290785
1.74846984424773843613820645259693
1.16504943778033620560563576873392
1.60539060633897490149024633865338
-0.69763437629348235002879619059968
-0.49689913804799118457466988729720
0.05713450401382005189310220316656
0.02636640740927321743813926957500
-0.12915792148656798921102506483294
0.96790411098929574063021163965459
-1.26852551125613910443234999547713
0.24851742393885958848365191897756
0.28903153634459616272422977090173
0.22813268429326760688979902624851
0.17151072304915371269373736140551
-0.35934507863583103892679559976386
0.39012044297947517934588290700049
-0.02106790860255194214323282153600
-1.32825337127749421028966025914997
-0.38731581890896715769656566408230
-0.88486135348480920992386700163479
0.40003920954027349932147217259626
-0.05598838578113069647246291538067
0.55005008083270878760373534532846
2.04881871038749796554157001082785
0.39857037902413933183609628940758
-0.25118745660000918462628760607913
1.04589791791415187560687627410516
0.25625030008754118293623491808830
-0.79562909711084373043377127032727
1.15812264878666537626372701197397
-0.70449178089954311854370416767779
0.65152033528277930596317446543253
-1.28733595122960209344853410584619
-0.45313751060720808272463955290732
0.17782354266480174254105861564312
0.83561304710629646930186709141708
0.20228961885176202639691211970785
-1.06900997839589018134631714929128
1.14459649906678584407870857830858
-1.17509507959204317906198866694467
-0.78968896775527075426737155794399
0.89107135917844193517822759531555
-0.75728714541575570251552562694997
-0.41383380267031077970329988602316
0.85372336461282238850856174394721
-0.18377816739372312970779432816926
1.49229738690650659549419287941419
0.05822439486340430514488275548501
-0.52790910237438570806745019581285
0.71784552335903062392219453613507
-1.05433068927478745813175464718370
-0.39549143485949034282356251424062
-0.60119283791118871551617530712974
-0.56881386189150451304641364913550
-0.30344958228071944317250085987325
-0.22583890940728565399631122545543
-0.58729013058629542243238574883435
0.59995070183099086236211405775975
-1.97271307286958541560295543604298
0.58512394146464308253285935279564
-1.46047298114683510306122116162442
-0.67019723034188327659421702264808
1.14109130216914178568288207316073
-0.64469260665029259893543667203630
0.96993995678920719161197894209181
0.21338595410614852321273815505265
-0.93912512530140990207883078255691
0.18481092423808556657327528682799
1.22892831540517732946682372130454
1.02199411861221345354522327397717
1.04579643822033463429477251338540
0.38787533509969096545688671540120
0.16917543512159474716760598766996
-0.05049972957037726639661912031443
-0.62927206285781556172054251874215
0.33618202776844396950650661892723
1.29940410658540606014810236956691
0.81247949870391533711000420225901
-0.00711126622861563747329816109755
-0.36225788672986247718199592782184
-0.22338229912813944988414505132823
0.21641185455688988215072754428547
1.29862987027374710002902702399297
-1.17222789126278503779587936151074
-0.44657726273892112134333842732303
3.29053780145752172714423977595288
0.13126337889232622679891449024581
-1.52464601926900233941353235422866
1.45274214281424285388766293181106
1.06221445617830290153449368517613
0.08047893179742986180524866313135
0.61499439730390281777516747752088
0.44349263637723768116671863026568
-1.01102175439105934628969407640398
-0.56532013209791853736163602661691
0.33006802856901173992554276992450
0.96220091194957568792034408033942
-0.46120396668577051668691524355381
-0.87602629836676793040339816798223
1.87437687979699596496629965258762
0.48283868982769390099107909009035
0.93432317311066459541990525394795
-0.49733283609575745787267919695296
0.67546104932242723162261199831846
-0.20822805269090360891226509920671
-0.22304470778356205729053840514098
-0.26942446828122240676250953583803
-0.00410746939988348644390292463413
-0.04113656041570243337979206899035
-0.47606666852594820005251108341326
1.37145775911897715992893154179910
0.29285479164707095556252625101479
-0.09597841465901493784862452685047
1.62850584589830549298028472549049
1.95933359537072360190279596281471
-0.39825890953344300626781659957487
0.55992205642293513268015203721006
0.41988898639998267769968265383795
-1.50863708689141140517619987804210
1.40505229918922269760628296353389
-1.23692760168099491480120377673302
0.12258146942471322138334954843231
-1.33473967925244640930770856357412
0.90911381106554312037104637056473
1.64303040228552443835496887913905
0.20571173368823791882675777742406
-0.45902077133006008446969303804508
0.12161281658424882845537240427802
1.03993981855302974892651945992839
0.29858553958657613192073654317937
-1.58977246811169425910748032038100
0.25880368776844198119846396366484
0.46242700623585603070253569057968
-0.20667835556404270946906365225004
0.02657886968632984514560035904651
-1.66971399679516863123751591047039
1.77098738664421517796654370613396
0.44410219685681229240259426660486
-0.53254342800914145072965766303241
0.01356495067818542024640215970521
0.02829965927281363063938712798517
0.51358951645558470477936907627736
-0.90932626190726506543171581142815
0.72647251174510463211930755278445
-0.12733048092731341638383923964284
1.19522823332846317434530192258535
-1.70461413529488936546840704977512
-1.16091181966262935176814607984852
0.53593088335257110799147994839586
0.25384750177972847939855682852794
1.14664917435198709938504180172458
-0.75459648964626191425253409761353
-1.09392992668172261971903935773298
-0.15134416741800002514928280561435
-0.02211785449112859888720628021019
1.01699935448296896467468286573421
0.65094716475693659152312875448843
0.31177021809089677795157058426412
-0.62672083237254039289609863772057
0.98043873086691102347600690336549
-1.12833883932899459168197608960327
0.55469649525372488607644072544645
0.70022012824100487993206343162456
0.07398170227802086662549641005171
-1.31010794902040728082681653177133
1.12705277516678803451100066013169
1.32191403465239964987176790600643
-2.70504754150209247853808847139589
2.01764204110600831043598191172350
-1.06361533280820785840603548422223
0.73211912020226976860470813335269
0.24012938957214602364587108240812
-1.48267656825381322072132661560318
0.32955851338875535860850618519180
0.72262671738616146566158704445115
1.57448102800974298887126678891946
-0.34503765043971634796093894692603
1.74348377915868635312790502212010
-0.13920071536498748732135766204010
0.76080370396953056477684640412917
1.52257110828529418355969937692862
-1.78258902363856241990447415446397
-1.54388197782389946510761546960566
-2.57792488200227021266641713737044
1.45230301633538672056999985215953
1.00420855618308380030612170230597
-0.21249226425349720948076992499409
0.55304412806997349516535678048967
-2.10923291114923960876126329822000
0.43991414367039111121826522321498
-0.30417435141560278388794813508866
-0.71516145544946196910274238689453
0.17571016061165334321003683726303
1.68158815534561445481642749655293
0.77554126879664286864368705209927
-1.35078087476875308148294152488234
1.76534002597619332775025213777553
0.00760856430136203337050160300237
-1.52059850225274373336503686005017
0.66129505272799293802421516375034
0.40534247665888839540215826673375
-0.17811746310477466481714259316504
-0.62047193298278058293249159760308
0.51057143424514206397901716627530
-0.86709051801489123167954176096828
0.10013466260214033687336865341422
0.64977233577933113384261787359719
0.38809720496277211321256572773564
0.65206075429785148589445498146233
0.03064345031070438846176884339911
2.41896775197013491620623426570091
0.19795159499985973128310945412522
0.31069679606634853508140281519445
-0.34775434544456734764494854061923
-0.55546275578181769638774767372524
2.23118678854082164164651658211369
0.93505640156142133534444838005584
0.16538060821980316017487666613306
0.16329552829636317934358658021665
1.49501480608174497355378207430476
-1.23655891108105797648875068261987
-0.89286320472780400514523080346407
-0.34251228790784460365159702632809
0.03892706423446069124993940135937
-0.69832031341864908569050385267474
-0.75240131442800106675861115945736
0.21502572694820551446603928980039
-1.48913135907962801418591425317572
0.68089945668194207240020432436722
1.74069482885962245610755871894071
-0.23681044002970413897557477866940
-1.08299359159593278079114497813862
-0.85339160720149320749072785474709
0.21454984462541404344193551878561
0.87935466266854023231758219480980
-0.00360925631807922390678622370785
0.77702303490356061654864561205613
-0.03260515433072081609156001036354
-1.95882583903664220237317294959212
-0.21862060787307333042939205824950
-1.93861902601014746139185263018589
-0.93177334180138382535574237408582
-1.51118652059272995380467818904435
-0.02532189814596108937139185002252
-2.52867198657313663190393526747357
-0.29156178916523739497179690260964
-1.12393661032369429619848233414814
0.03174844957685995366913900284089
0.01025359687802654580501826586669
0.40107019023894818765541003813269
1.07178328437511982684782196884044
-0.44090972529406258217932190746069
0.73255998824076196118681991720223
-1.66944951620868864416991073085228
0.46029046767806031104086628147343
-0.93506293268281714947676164229051
-0.99923069954317966789858473930508
-0.55584147565494157472443248479976
0.67801004447536417085728999154526
-1.20426442101501640635774492693599
-1.45650943848218905607438955485122
-0.10374572281902662285180127810236
-0.00901070957371197939211882044219
2.73246801207974154834801083779894
0.36586592400762846244433035280963
-0.95764728784653352366973422249430
-0.77037496272375194372727946756640
1.34557881466144313442612201470183
-0.37618207442628093239989084395347
-1.24365554700651914643572126806248
-0.69926048587070288586886590564973
-1.13865588463930023088721554813674
0.57448836721962903695271052129101
1.32439928744243773373057138087461
-2.00923420752640780051478941459209
0.64630313631728231182904664819944
-0.17923833656807419689727112199762
-0.18560645921100762945066264819616
0.30539708114629016133534378241166
-1.14962170996684975854407184669981
0.26280476488972587256753854489943
1.83813414329279778414161228283774
-0.03428674517266299542894714136310
-0.80565209080743682701353236552677
1.25891604180286997838322804454947
-1.18421976819879248843392360868165
-0.37482642278056937934493930697499
0.53563391664829163030248082577600
-0.51937705555278523839035642595263
0.79605406596111938366533422595239
-0.16778990952307776263197069965827
1.16708864953394786390106219187146
-0.44196026675605759592713184247259
0.52898919305727376549697282825946
0.63227564106412259548051224555820
1.16797354276015608043337579147192
-0.17215613587747841117803204724623
1.40922269150606416232562878576573
0.01556935984736440049813754882280
-1.35976165780686986117586911859689
0.54264066372646901914578165815328
-0.64663192723191198485466202328098
0.53846292921316063484482583589852
0.74300390284751438585431060346309
-0.41712082135408534711018546659034
0.46980897799291332361804052197840
0.61865620529884801648279335495317
0.08771658298982806800658806878346
-1.13508025660436540071884792268975
-0.04520760185485979409936163619932
-2.07630137577387863245803600875661
-1.31462425393508719473345536243869
-1.43104640269003935415526029828470
-0.62379489837651425077069688995834
-0.86947714844250811871972928202013
1.29224758721157306773363870888716
-0.14485309040138114045070949487126
-0.74423429099609472725518344304874
-1.40392707510252612301826502516633
0.11902644424069173945124333613421
0.41019962144284310978648022683046
-1.56098890233407705530055409326451
0.39072677303916547586482010956388
1.46318916112445696064980893424945
1.55622226020096143805915289703989
0.20495205817636588663255281517195
-0.40014097943582349614644044777378
0.26305230423994307997759278805461
0.79345290855594119427962596091675
1.41118424696790079053698718780652
-0.56371115949174332993010239079013
0.02542183232188070449164563058275
1.40540563915455862797898589633405
1.09081325304849041657462294097058
-1.04845493994072325172339787968667
0.44104587375398657256297951789747
-0.93973608414652942677491864742478
1.14453617902535209616132760856999
0.85271911827695279217920187875279
1.06676511759466352557979007542599
0.43859414509678140703385906817857
1.21995674255839126054468124493724
-0.66734787425661878934590731660137
-1.64609548315852971533956861094339
-0.32296105796300961232603299322363
-1.04582377041288032692989418137586
-0.03640170189595629685053168600462
1.33605465856048000183875501534203
-0.41727159217953740943940488250519
0.19996649263556379172435129021324
-0.62232005692095304638655761664268
1.99602308995204236197196223656647
0.14503450500102632592103191200295
1.20014117120011354344910614599939
-0.19138793437585624457319966040814
-0.45935531493263137559068809423479
0.63081474582643848325602675686241
-0.59348531365102175083592328519444
2.26539057284178113604866666719317
-1.16788455684880165819095054757781
-1.02189969504748590090059678914258
0.69021353017937736584741514889174
1.08198803422866385304246250598226
-2.09895418197628469414439678075723
1.95845793897111808412603295437293
1.03332858242131853110379324789392
-0.92682977860378201739877113141119
-0.34854661679075849001208098343341
-0.52541511011595298796805764141027
-0.11960374510314060458870955017119
0.42498148005067065691164884810860
-0.33545708766054210814289149311662
-1.54426327103751703795353478199104
0.46114383671597192204671955551021
1.21024723628452468560112720297184
-0.59048657004935467540462923352607
-0.01933017308327108010890249545355
-1.33641242737085219616233189299237
0.55761180699405799021661778169801
0.29516662336013516076960172540566
-0.91081628350982091202325818812824
2.70106032108546445513752587430645
0.88751386474171456431037086076685
0.56778878634294316363195775920758
0.52734108583645533663286641967716
-1.10674851764861359448843813879648
-2.18929247130040049995614026556723
0.85615435962670927150242050629458
0.27353131333916347323054196749581
-1.67099891383752230389347914751852
0.85314960495449065902562324481551
-0.26616552341840504780634546477813
1.46481774307239298593685816740617
-0.60050431500812861962401711934945
0.72817354747042417617564069587388
0.43600165156108744435314861220832
-1.25502083310669432236750253650825
0.41564712537388304181007470106124
-2.00095248212616194649626777390949
-0.94044673400248723904581993338070
-0.40315230472632107572295012687391
-1.04957386980432509915317496052012
-1.24810350357183308389608100696933
-0.84111385326387877459097808241495
-0.65236655929893117011886261025211
2.44695574950031957683904693112709
0.55012415656923485673956975006149
0.61406038760656167507789859882905
-0.29572764094603049001008798768453
-0.51226967924415445221342224613181
-0.60660528175038119780282386273029
-0.01416995397821750948819108373300
0.65080355047674820490044567122823
1.13244206356184684558741082582856
0.65340788720294540325994603335857
-0.72045147025858902178896414625342
0.14023005161283499941937691346538
-1.02803058007305292420596742886119
0.57536012280081305636514343859744
-1.06694461761871761673603486997308
-0.95061186415541631955505863516009
1.05869484978914618622525267710444
-0.50412562116588743865719379755319
0.37184490509264289670454672886990
-0.51339183943895594364192902503419
-1.53783616803286560248409386986168
1.23005161436806598196369577635778
0.32742610523792098353723645232094
-0.25734256944794570154400048522803
-1.14304581086996970284985764010344
-2.16220761323609433901538068312220
-0.55178434466068915220660073828185
0.42640193594367387097676669327484
-0.82773596695781670451452782799606
-2.02779308275061787014692527009174
-0.79127324776847196563522857104545
-1.24770557044091323639634083519923
0.61427022324908397976628293690737
0.17628471865038208843401434933185
-0.07255962851235586708043001635815
-0.79605491557963536930486725395895
1.33330933595260203716748037550133
0.83745024078518381926983238372486
1.23797766571979273031445245578652
1.19666941680422045379827977740206
-0.07096838820052867036203281259077
0.57622137090200276077212038217112
1.53218923789277594593727371830028
-0.01730911123674629126245605448275
-1.34466094126576063416678152862005
-0.04899903291137547994837930787071
-0.24361065933295791841040056624479
0.83207518639536548477053656824864
0.65039662969371825340658688219264
1.57532706880423711837124756129924
-1.14183411307477000740107087040087
-0.19289485053653843138476986496244
0.26264989517574621746831553537049
0.69524543732720545108350052032620
0.75203979278423327414770938048605
-0.72378519922056505642160573188448
0.85010785047803250069620162321371
-0.10177778614105102705789107631063
0.85955030137143850765824026893824
-0.09522983770104402612144411932604
0.77518676948883957766867069949512
1.21781323652432749149454593862174
0.33688630270202563066206380426593
-0.05890083032698119336334485751649
0.13074852925315283425078405343811
0.40074642488984818511355001646734
1.81660531780627665376925961027155
1.32287822069873928221284131723223
-0.14457978085085296249268083101924
1.12742864967189726499441349005792
0.20211340504424588071508139819343
-0.20405149659652990767888525169838
-0.54189857356859438830554154264973
-0.56582144461288785830532788168057
0.04977397946234000947196562947283
-0.85333527230282169018238391799969
-0.33277739368051451052110678574536
0.19593195903052876283290117953584
1.47632165426854045087168287864188
-0.27104936843979127170101151023118
0.28396611750091577119903263337619
0.50932183040127043671674300640007
2.94998745920486982186048408038914
0.96570103766336545803028457157779
1.10355118746264113660515704395948
2.30979361542596572931529408378992
-1.31140885631607151395883192890324
-1.76649280158986110578211992105935
-0.14827491878363485700020873991889
-0.98049426895519919966659472265746
0.96151076514086308844042605414870
0.18759986250468291268944653893413
-2.56136915101409412542921018030029
-1.03078306311818490570431094965898
-0.29936408057274915828216421687102
-0.33487608351647196736067257916147
1.26840842805203668497426860994892
0.88921494731996242322225043608341
-0.60707594728012082008206107275328
1.30360846075799496901481688837521
1.38763767120482883754561953537632
-1.11019690961897210534914393065264
0.66092333175186734894879236890120
0.33302076847379685764494183786155
1.68439745168594701141273617395200
-0.48151475121355591380023497549701
-0.22867208641536182489595319111686
-1.67530819584655410459106406051433
-0.29378976947984231093968787718040
1.01923821032807371267381313373335
-0.79466046606033946542169132953859
0.27714295945842859492103116281214
0.04258563612238232959361639018425
-0.86016285618493137921092284159386
-0.74702419663660324378184895977029
-0.56711736180029004295022332371445
-1.77690829859945664814802057662746
1.01335435358339776001912468927912
-0.37800545339564645130892017732549
0.07628297452206098117066801478359
1.36551048111712569621545299014542
-1.45821591328591626535171599243768
-0.10357200320991348518884223040004
-1.36133409215789336066393389046425
-0.24996833045215913204906144073902
-1.08540587558411560920035299204756
-0.81224414159933489010256835172186
-0.97496296423500261596473137615249
0.49671684053845455153464172326494
-0.47294581962009302200655724846001
1.26053515484211731134678302623797
-1.74065981604488517753281939803855
0.31378212425667079132907133498520
-1.61750329037690976363705885887612
0.54548675780056754547331365756691
-0.57568705015804144675684028698015
-0.60388569381600964991463342812494
0.65150586242639607625903863663552
-0.20118530326496186777518460075953
-1.12425462982776558362729701912031
0.71718460568636488439153708895901
0.45340731013474838695387347797805
0.58732827382552188488773481367389
-1.91066175191357645601897274900693
-2.55192142283569145533306254947092
0.97776975595351567349666765949223
-1.25466982202914589805686773615889
0.72094426326836225094041310512694
-0.09448985810590948553056023229146
-0.25125763745403051352411694097100
-0.44987230271389683222693633979361
-0.02074143809406828881103379558226
0.03418813520975092640208359284770
-0.67083381432174760128361867828062
-0.01774610252697130310939321873320
-0.52926705586232236644406157211051
-0.39290345152665029360150583670475
-0.79678949142735711053120439828490
0.39629100014631246651219953491818
1.17937382086648745449508624005830
0.84025852004921319782226873940090
-0.64683485182252387080126254659262
-0.86090480260335988660358452762011
-0.09165891043254721648469995898267
0.36617990721943793896997476622346
0.23360357310965973454131017206237
-1.08257570120499035937200460466556
-0.15305805819794587874227431711915
2.01463873446353058938029789715074
0.31582413139587323103185667605430
-0.24447338971227985937595406085165
-0.37339125161596398161378829172463
-0.44884689834035101929643474250042
0.97749316068924929634675891065854
-1.56657207491500494178637836739654
1.10046522781429700899025192484260
-0.98399858877093770992416921217227
-0.37516399638852082620843475524453
-1.43870320336102719416260242724093
-0.06675961118945573924410297195209
0.69780794905588106047389373998158
-0.19237835275243633792463526788197
-0.67699399874743815264110935459030
0.13844666234799943294042634533980
0.44303918347824455814532029762631
-0.14135543464329244911503735693259
-0.10440936374956565069194169836919
-0.27425244909520390956814139826747
-0.33519310732399343333298702418688
1.06590485357330044813295444328105
1.84839674293580236152934048732277
-1.23171724651273439832266376470216
0.57913011570445849240940106028575
-0.19380396729391272114817468263936
0.37622246457469254998784435883863
-0.12996746698956462839902314954088
1.41810810330972159043483316054335
-0.05493082454335447561977190389371
-1.11506247080435172414070166269084
-0.14412933992858739662423772642796
1.65599958867803787043726515548769
0.17106010735424717617014778170415
-1.77626578780263910672942984092515
0.19555293883385369002603226817882
1.31513951935802375636797023616964
-1.58424782806017128145015249174321
0.18573768457161651812548086581955
-0.10906911996693099964339523921808
0.24053188942191469634757083895238
0.20524490328549221951348613401933
-1.77490751216248177080103687330848
0.11437735278680698225439726911645
0.76319885185424751750105087921838
-0.28707497354667327327248926849279
-1.86929958143229613121150123333791
-1.00013804989724341965029452694580
-1.21869932490159738058821403683396
-0.05458734672415119226762669768505
1.16289487439717853511922385223443
0.25103417052914062113089244121511
-2.39399674240184534568243179819547
-0.15284703166902613435951252540690
0.37598949058421377023009313234070
-0.72256472584333519826316205580952
-0.50973467953765871918392349471105
0.90110916859316347871100560951163
0.62363703194148545350117274210788
-1.45664104630880064661369033274241
0.66390736133382355355081472225720
0.58157074004115305587703232959029
0.26876460970063492661452642096265
0.04202706400123994157080886679978
-0.40525460980588851045425258234900
1.00675388328523274239501006377395
-0.07687049996645908822578974195494
-0.30543133094796059978648372634780
0.55968536558358095156506806233665
0.26027665838400992903700625902275
0.60110478224124874735423418314895
-0.36206110426220750042602958274074
0.52801977545394362945074817616842
0.85286789378420113649781342246570
1.17751117838355301437047728541074
-0.19904037904219371024616691556730
0.44431649450639154608211356389802
0.38344276888248246537571617409412
-0.11239956936415333721424048007975
1.22590960524314773749665619106963
-1.76448026846740524398171601205831
0.22750070363064181511170147587109
0.28503039207616231998088096588617
0.82539735381165446614915026657400
0.34196542763279230703332700613828
0.21590604596901649681051083007333
-0.33425106701950674237266980526329
0.40845584022402720014710553186887
0.82581017925813926527922603781917
-0.56046106544232954238538013669313
1.16250610861430625497803248435957
0.31218191594031013957888376353367
-1.40268591257669283933751103177201
-0.96269580722484882073786138789728
0.25369231520632629095501897609211
-0.55856969701498004887696424702881
-0.74682275163756950409066348584020
-0.26767620836690425578652252625034
0.45028648229075135533960860811931
0.02350344271828778280886140805706
0.05479127528027242371999605552446
0.70642044859070174389614749088651
-1.19617105697546111109375033265678
1.02783322272939270369818132166984
-0.76646515281594751467508785935934
1.34928496778169337844133224280085
-1.15778323391903881223186090210220
1.03359066902530782883218307688367
-0.64383451266088020936706470820354
1.44280496514716705114267369935988
0.21494805897784613479828408344474
-0.81067963638066276033100621134508
-0.11221105713133813774895486403693
-0.81951379916979194550918919048854
0.16436384030058162619702954998502
1.08665677951333705664183071348816
-0.56671272690133622784713907094556
-0.61894031072549671179672259313520
-0.63020122803764477836807600397151
-0.72630782865421439353781352110673
-0.82489198757752424384648293198552
0.00964738551752019474205823712509
0.66038186240646301605750068119960
-0.76928952320238808137986552537768
1.12884355840611028121145409386372
0.34310861675635251355487298496882
-0.90839085449082335177450886476436
-0.62611347436550046641201561214984
1.11258043919105364949473369051702
-0.31300136716792176239110290225653
-0.56917028397989521959488001812133
0.32339596793254260509442588045204
0.04212995025728297898703900159489
-1.47036423866025378615063345932867
-0.88299925671087486911403630074346
0.79155987443564790329020297576790
0.92476889294572628408275249967119
-0.67472926204387750903634923815844
0.37795303519007839021526251599425
0.25043520024573784343857596468297
-0.55620338761234955349266328994418
-0.04073924318512990583318611470531
-0.61077764507082710210283948981669
-1.28264896217462243122042764298385
0.32737303517464988455998309291317
1.18906243587382798310159159882460
-0.94248078975466920148562621761812
-1.28297173968954347778037572425092
0.33314909452237551068520815533702
2.46089551407446816000401668134145
0.85200466638042127165419969969662
0.62728655097155783249007754420745
0.34020029614062130551843665671186
-2.61775161650283827441398898372427
-0.84387385367588929607762793239090
-0.24748102812403660610840461231419
-0.47150458663582439644557098290534
0.20309153364471443925509674954810
1.34283273903858035858149833075004
-0.78650826231590242887392605553032
0.21894335446700083358528843291424
1.49364942603021666478468887362396
0.40419401892933676245789342829084
-0.42536281005195891724568468816869
-1.10429404766507888169257967092562
-0.89642493664342481896056824552943
-1.42251099167917427479324032901786
-0.80983189935230215361627870152006
0.04679698457941854766728440040424
-1.07226102233597209156812368746614
1.65729800010954697597753693116829
-1.46915387715739864660235980409198
1.25122064544633149196783961087931
0.28671729574686671826455608425022
-1.08761979213963888568628135544714
0.32052398824797123655372388384421
-1.41369829200521568424164797761478
-0.32681702412258556433855005707301
-0.39111989829852622513328697095858
-0.17387427809300209924359137403371
1.03784041460851028659817529842257
-0.35815583391652683342698537671822
0.42777572459279600280979138915427
0.05097974730113842556367131919615
0.56179678552660405888019568010350
-0.42581736098879102714320765699085
1.53241125213774931346222274441971
-0.69136052968275918395590906584403
0.80667095666817567600759275592281
0.67540688115016167536452940112213
-1.73856026262646379265675022907089
-0.49047157871724295086224287842924
-0.59019669033766697374687737465138
-0.66589715629619383729931314519490
0.15337803136084665611704735965759
1.41251994789108881178663068567403
0.18846863576994762889960099983000
-0.06105504907277826270872722602689
0.60352624931178910916429458666244
1.32464461116313825250756508467020
0.08420320132486043551711674126636
0.15142583183194380236358256297535
-0.82870042354673623119509784373804
0.61793609389418180377617773046950
-0.65403683438887105783265951686190
0.77283002637161712922164724659524
-0.89277390468029249603887365083210
0.05102095744828010620564029409252
0.44998395032198756915420290170005
-0.72102250667204592637915538944071
1.12120150219269731906024389900267
0.61677563956323744331911029803450
1.14766059581225943198035110981436
1.59156676233091998184931981086265
-0.68115943205077822408810561682913
-0.38513792467469765146148574785911
-0.26757183919474292199680576231913
-1.03864428795631846824676358664874
-1.78845652251965603340977395419031
-0.34884236031669124677989657357102
0.91529227055254780420767701798468
-1.38567466714004372541069187718676
-0.91622395568696612944137314116233
-0.23297829792863089526377962101833
0.75825850854702914194405138914590
-0.11686886751718146559841926546142
2.38228707366728453820314825861715
0.83793917698919351266795274568722
0.86109194754514251091137566618272
1.09748123705280264950090440834174
-0.04299545024879419807817271248496
0.39641698453174956107147863804130
2.26231155625337843062538922822569
-1.09361129594294181899272189184558
0.80269495347099284465741675376194
-0.72757529499943451867238763952628
-0.10920808082699892671563191015593
-0.63233792805849287077535336720757
-1.75124719262858730139953422622057
-1.36465739905796135111870626133168
-3.11193441413616866952907002996653
0.67448813515144911967524876672542
-0.06612405283957892287993729496520
-2.03912773944482372812103676551487
-0.95691213462631341535313822532771
1.00398580635947176631361799081787
1.19546626186205484643210184003692
-0.49473695967335040712953286856646
-1.49781851187908898737077834084630
0.17867499219960389367223285717046
-0.63573337896407289271394347451860
0.71121688225999024624002231576014
-0.25404373722353773557003364658158
-0.45955400640145455115614936403290
0.13924657387165156885444616818859
-0.66821388805808623612136898373137
0.95904186976711391920957794354763
1.15932646685277496167998378950870
-0.87842765768362274236835673946189
-0.16438584021987809324905072116962
0.06397572421455788305166834106785
-0.02746052970199332546319404002588
-0.84685663789010345858798700646730
-0.67779633629333591038346185086994
-1.14023099601166966188259266345995
-0.86520605262491967479832055687439
-1.01584089817862111004842518013902
0.59552539907042945088733176817186
0.02117508568843835467521152793324
1.29646844599779798024030696979025
-0.17533782109907386503877546601871
1.72826686648259464362809012527578
-0.36462722465087227252666934873560
-0.20178377520436990844032720815449
0.28393231022722326128970848913013
1.23892093963782223831060491647804
0.98834849420188941593323761480860
0.27139663584594758694024108081067
-0.09681103655366224414180464918900
-1.76697685682485805536146017402643
-1.34040177951000605283127242728369
0.43654292742057149157020035090682
0.01403374027497547062159899411427
-0.84460368307020916578409241992631
-1.00116204081977300255346108315280
0.22545935685093468348050294025597
0.21179205804934622681123812526494
0.68164722093754259724107669171644
-0.96791939902981405374760015547508
0.53196976516270688684073775220895
-1.08327314321640577610139644093579
-1.04229248337157653914175625686767
1.48144814510401867657662933197571
-1.37341966642383983554509541136213
0.88861902613172427667365127490484
-1.98898400209502601576616598322289
0.79427436957336006173591158585623
-0.19005287669446099818593154395785
0.70619966313933801860258654414793
-0.98615098080582908046665124857100
1.35097815568088153170833720650990
0.32071482988462995944445310669835
-1.76063555532699145267372387024807
0.52624900521532846919825487930211
-0.64033876927547317414735061902320
-0.53451117470419540200765595727717
0.25751484446805555927895170498232
-1.52985149463095115862643069704063
-2.07888499100060375468501661089249
-1.05376139089133014081767214520369
-0.00849786628308975104661993071886
1.55094873418302015011249750386924
-0.19651383955590726038131776931550
-0.04685430971747569367513719384988
-0.71648679888298638651633609697456
1.22843089840842778492913112131646
1.10542941928793125860863710840931
-1.94190990964114762462600083381403
1.22118448644805499547771887591807
-0.63721829573618427033920852409210
-0.10573006902777926097058980303700
0.17503547816056699848452637979790
0.73964365996297509742163356349920
1.55722336856907062063726243650308
-0.85068361724565078052506805761368
-0.16157304361939592296515399993950
-1.49160099243749155739635625650408
-0.92080712277733633985832284452044
-0.14193093043628299265712655596872
-1.26037774407599845183369779988425
-0.28495026766903580606182799783710
-0.05172370035607438271130220641680
-0.80195763424003441155463178802165
-0.07966627713052690240580488989508
0.24849333827058456281022813527670
0.32015643609384475398726976891339
0.09781741579786032425580799554155
-1.72515080266173015388631029054523
-0.60233624318645240247604988326202
-0.50464423493554511068737156165298
-0.59549109119392251709967922579381
-1.14157794246504096236094483174384
-0.01223717290028896766129751227936
0.46514828541368324898996888805414
-1.41663515488067104364233728119871
-0.78071629393073260771984678285662
0.04094348697244289819741069891279
0.03921190786857266241671737816432
1.02457644190422869634460312227020
-0.36989926908035358765758360277687
-0.31089089483573711936159611468611
-0.79972056645965328147696027372149
-1.47180244731314679995648475596681
-0.41800644558273841733253561869788
-0.13828327571508919335840914754954
-1.27425984329235486569587010308169
1.25312382532112920330291672144085
-0.30742132603525995637738787991111
-0.78977084508773609528020642756019
-0.89973872613163474731834412523312
1.30333486584032520738674065796658
-0.12809590365476536399924611941969
0.17290955524089970940515570418938
-0.77717000468524843892481612783740
1.54713356579728511519533640239388
-1.14472304624130760686284702387638
-0.08393069038095077316619097018702
0.45980183670055158051681587494386
-1.12216020544399963654313978622667
-1.26351278545688616716802243900020
-0.35208908825723644886451779711933
-0.94657957487437649479744550262694
-0.68222143406796975639849733852316
0.36375638777294289072372635018837
-0.40907289820158032611630005703773
-0.98492757434910205294187335312017
-0.98726357596683556039351969957352
1.69004059575345366717158412939170
-0.15223626048244318087476756318210
-1.46359778587615840805824518611189
-1.74075833692283832299096957285656
0.00586815467292799240045519937325
-2.31726390253492287030212537501939
-1.85964552976270347528497950406745
0.83902934909295034948684133269126
-0.80102924226446270417056894075358
-1.61386063547189340106058352830587
-0.10947425900972632129004580292531
-2.24902316102990651458526372152846
1.12810814733052011682445936457952
-0.66370994415920925302287969316239
0.31178806177754048167827249926631
0.43354700655219463589773454259557
-1.02756248701604890882776999205817
0.25968921822719520653421909628378
-0.60611157494603606910033022359130
-1.10276069949906818656870655104285
-1.06808691081218287699527991208015
0.35287806558515527610708772954240
0.37716368824313534213743537293340
0.28789708198205821165771567393676
-0.52872541263965833202576050098287
0.70312786355469647503468877403066
2.26511066685028383815847519144882
0.32238119401594239610275849372556
0.92080790134093570831197439474636
0.37304955129076400321963546957704
0.56809025237067700686566240619868
0.18686603614715330268225557119877
0.74504965705146075638509728378267
-0.49309987157161555559881094268349
0.05720109113960727270642436792514
-0.39994107084400398743895266306936
-0.02502962428760354199330784297217
-0.36764958256239554934552415943472
0.14170888582667770516643201972329
-0.48359578921948082053106077182747
-0.40394798456718583601343652844662
-0.75769813050671075416175881400704
0.19077209014636783979135259414761
0.28037995383664876536400356599188
-0.47697058282106247206755256229371
-1.37757590064298018894817232649075
0.03576524616773098241839790034646
-0.75756976706408074573317890099133
-0.19857162393109076270469870451052
0.00753689753089797562224383398188
0.85780190495044439380478706880240
1.27745454838030170208185154478997
-0.10464251190884912845469045805658
0.08661387058988020970495824712998
0.67164724341916992589318624595762
-0.07075230415482537671412188728937
-0.22663416111276618591929832291498
-1.00837242155466277893083315575495
0.03883583282445834949925256296410
1.09859484877696300664240425248863
-0.45586304916221803695819403401401
0.61874784269464155883611056196969
-1.83427377898111299003858221112750
-0.52184493694881739500601725012530
0.45226455684210564722746994448244
-0.15200241750483653446757159599656
-1.04587407407629351396849415323231
0.38244297919100950222670576295059
0.31937201356248995365305631821684
-0.33756364776289166096390204074851
0.17031870278542185492831606552500
-0.75706997536348574762143925909186
-0.77503707655782916319253672554623
-0.22258505441102177657697325230401
0.03811772328663885073263273284283
0.37997208842559510033609626589168
-0.71080926717730841257747442796244
-1.21178991937673363743499521660851
-0.66876994706347892005737776344176
-1.35579001005069077478992767282762
0.14720129065640930043912248947890
-0.53661465774626870839369985333178
-0.73854298740174328941066050902009
0.19591695190509633706099634764541
-0.18430441020816953900940404764697
1.05089580369988810915060639672447
-1.28356583852189287675571449653944
0.96384334354052647597654868150130
-0.05120126696817663830563205351609
-0.93974126866862628393306522411876
-1.20055525997255729819812586356420
0.48474914453100681477337730029831
0.85178469556177971444554941626848
1.26503107436303174893055256688967
0.41978282171673103606579502411478
-0.96841108979270917878068303252803
-1.66193501863126980033769086730899
0.55056481762967235393801956888638
0.84294909047683785896509789381525
-0.52083164147028637724901045658044
-0.15088482654054821696654187235254
-1.13881615858803852958658353600185
-0.40780643271094374480156830031774
0.64820880340628950211367964584497
1.46679886424711991566027791122906
-0.07862173977785164025178232805047
1.82569083836251833119490584067535
0.13038742381381412949181708427204
-0.84708463608782258447149615676608
0.98296655809031785455687213470810
0.39053247724272149854485292053141
-1.36584447910059259001513964904007
0.75624089701580787803436578542460
0.91581504347071485128140011511277
0.00423970707743195895922383442667
0.27170811480616297028944927660632
0.18825185418290793504247915279848
-0.44642921235572596838636627580854
-0.13872613913295653298440868184116
0.60309662658956653125130742409965
1.49072693444295212295003238978097
-0.54781898944948215213202047380037
0.94784804374123088344106236036168
1.14689605978935738050950021715835
0.37929725115406542901297370917746
-0.66503458110991664486988383941934
1.67758977464463332474053913756507
1.23103373722112641175385761016514
-0.00038234918178784690944230217902
-1.68054641178100760967595306283329
1.30881895066659703630307376442943
1.37094942906434469342968895944068
0.00045916362196393657908732865991
-0.59314879610792725639356604006025
1.01015629529134143282931290741544
-0.20164743855765529523260681799002
1.67851499520785618635443370294524
0.19295746470190547339207398636063
0.29192473968585935795161390160501
-0.24015896640485515090013279859704
0.46393274322091937467149591611815
-0.82370822752992645110481362280552
1.40568595759389669552774648764171
-0.58905287470460243604009065165883
0.60884125762384833091545033312286
-0.49161255181074520193007515445061
-0.41126545285445692545778229032294
-0.19285620608902981354404460034857
-1.36364897950875851861951559840236
-0.17726218691728570786558805139066
-0.02561240807889019269194541550405
-0.20127677035850433107100343477214
0.59457911110331052029209786269348
-0.12116830656127899890073251754075
-0.47252455997688691535785210362519
3.48267119593364649077216199657414
-1.33520909401616094669407175388187
2.23440086923962022424916540330742
-0.94947416548005092451489872473758
-2.10383918961693394678036383993458
1.03141642090556251432076351193246
-1.71225670087367087823793099232716
0.62681572682658093231822249435936
0.17312110851498746511012427617970
0.04196864994928955344688503714679
-0.68438106871006609832619460576097
-0.28505012290742837155477218402666
-2.12303212972907129341137988376431
-2.20691199162511431097755121299997
0.41504033665376016681847204381484
0.04173447376369342209923019026974
0.66862140142876691495388286057278
0.72036388774564963366486836093827
-0.40694983469744894222230868763290
0.96457709110844347399904563644668
-0.13132879068144792666927855862014
-0.45336798027191382853828827137477
-1.43784878209497790635396086145192
-1.65612445435665156523441510216799
0.37559420570860679866598275111755
-0.31196364479937688241051318982500
-1.06073040099021143056745586363832
1.84390497536626862817854544118745
-2.27057476446218542420751873578411
-0.16365895334489533041733011486940
-1.51123058010948629892311600997346
-0.06199265459558715024579456098763
1.46654927506416954408052788494388
-1.77070515829655183992485945054796
-1.47848977255337654668210234376602
1.29825592864102468126930034486577
1.21748070739105918036671027948614
0.03246093160789706444369073778944
-0.46607403160844101952520190934592
0.43082054729842395035532831570890
-0.59489297634054449925855578840128
-0.98544864571899659644316216144944
-1.02881304227368564063738176628249
1.00860534781803967696589552360820
0.63300062864928252626128823976615
-0.77444949056897582906344723596703
-0.54230994789834685576579431653954
-1.26703371173487422396419788128696
-0.51363305307531481602723033574875
-0.04544888931479274668534529268982
0.32463377520906155915270119294291
-3.02392852992183680527205069665797
-0.13170832300224913358199785307079
-0.33000148571286008758463026424579
0.09036603593084582830563533661916
0.20013521208359599801163142274163
0.23587725088697347741728549408435
-0.69658347222407090981732835643925
0.20862990702260331143946814336232
0.78185958800450405803417197603267
1.08893702202270947765327946399339
0.69506599761129617132127123113605
-2.31321321288192782716919282393064
0.54108002341208993879462241238798
-1.32427502340270319969306456187041
0.33347335863055860283310494196485
-1.23164031753857416973119143221993
-1.94286761473815627887518076022388
-0.41827568144379972947533019578259
-0.89122719945234307736825485335430
0.07939852367868607818657267216622
0.86805017456587962865199870066135
0.79704059554516049068695338064572
0.03954440474662746646261624050567
0.59937682331789798872989649680676
-0.79695781310415492182386287822737
-0.28936803626638957220862380381732
0.28787565741533288621312181021494
-2.05029393083476341175241941527929
-1.31205537597036614450018987554358
0.02852123533355888779228237694952
0.03929528003135714792071198075973
2.16057541862474611349398401216604
-0.69700165517800594106034850483411
-1.19271648348122250027358859369997
0.66058106420185624951812997096567
-0.58860519770405972383997550423373
-0.13321498734095349458783630325343
0.27934453284641469483773335014121
0.12547692487511202807937138459238
-0.23668147603080644247874886332283
-0.06506195137761743019222393513701
-0.21424214508925001898553830415040
0.21638620966659077859972626356466
0.68185125559313453091903056701995
0.08699708233880895646983333335811
0.23064405292445741557649796504847
-0.15141215308745803458378986761090
-1.61384799876902462756333989091218
0.42782340805674196060337521885231
0.38449959336854894198509668967745
-0.76042133998787464488344767232775
0.74380111643300383938992581533967
0.06269218490222336348516307680256
1.63471977136296686694549862295389
-1.36074277192816772696914995322004
-0.89449987192533497726287805562606
1.28295010583006985349641126958886
-0.37401661070070146841715086338809
1.43196030684878050642794278246583
1.82822060810018460763615166797535
-0.53965645289538999307410449546296
-0.19433702191976962025954378532333
0.22386993009110231489522391257196
-0.84994177899559286704089799968642
-1.27586919585660485410016917739995
-1.09671553024375989515704077348346
-0.47788596367934832453983062805491
1.07353412679077009350692151201656
-1.62229316082681829236378234782023
-0.15595712979924145069610119662684
-1.66323169927582270588573010172695
0.33316294408643709612505290351692
-0.08921331840036376970015652432267
0.88491238608864752901439487686730
-1.10019071884040209319266523380065
-0.42173420704562636363021965735243
-0.40448822012396162817182698745455
2.49234986093124888384409132413566
0.12328953026271569082261692074098
-0.81467937482050556408097463645390
-0.23353278525329426718037950649887
-1.44638427481579467936967375862878
1.20010149173947411327390000224113
0.63427277597396913844107757540769
0.21949662542856401836743884814496
0.97507689317765644521074364092783
0.60263946316220973198340971066500
0.01580406507260102150214109428816
0.54406425036503858194691929384135
1.42914949806488156269779210560955
-0.16070655900400837579056201320782
1.08064445469636005725533323129639
-0.10437654520700874460903406770740
-0.81566795441980000092030422820244
-0.70818186871198895993018140870845
-0.42011609145639766671465054059809
-0.43578504714890037297081448741665
-0.96621760804353862273075037592207
-0.27756188172523837964789095167362
-1.20567338102640175812041434255661
-1.02001513329672865992847619054373
2.01429786530805676747490906564053
0.84532516393347789662726654569269
0.39163911967447356810012593086867
-1.55779060201313246381005228613503
0.78576997651840119196720024774550
0.19098631761885570545800305808370
1.33305835642084269387908079806948
0.99973752891164102685195302910870
0.07447737869541283528551645076732
0.09532308928045246654292554921994
-2.12261741106440071646943579253275
0.00080903895665026723769963634680
-0.20910771272495412564929040399875
1.16267000004563869630658246023813
-0.05176180204532509349091284889255
-0.02905460867016109588467642765863
-0.83401957806429094510747290769359
-0.92871523149976709099462368612876
-0.26662025000988159861847748288710
0.65485767003080408432680314945173
1.64478624175616139346800537168747
-0.85395644885609078844623809345649
0.81021153774853915674469817531644
0.11981484714198074870150634296806
0.47669481122232454373133236913418
-1.38292954254036204453370828559855
-0.88665882036593024473347668390488
0.45367159888846292359332323940180
-1.20304881611702807475694498862140
-1.09241297752565924561451993213268
0.78248146322996015022965821117396
-0.20207267631763342619066747829493
-0.59619961593574255509508930117590
-0.42062413731026060403905830753502
-1.22453340951269251668520610110136
0.29679898737058141300337865686743
0.84882420229697841396188096041442
0.17754390955145490926803120146360
0.59172150166195791598511277697980
-1.68621858923908285454729139019037
1.14794820427841548493574919120874
0.83937364001111502975760458866716
-1.52103442138020938934062087355414
-1.53263137795862758316900453792186
-0.22288174886980544053827202333196
1.00916174167139249817637391970493
-0.97113624768990447488903328121523
0.57034923533733883349583493327373
-1.34386215843392564650571330275852
0.37964869774698239979215941275470
-0.47248701370413709321738338076102
-1.92994430143495776519557693973184
1.00731150171749650468200343311764
-0.46383116338127239330901829816867
-0.45370806591902962390250308999384
0.22234252049839409171028137279791
-0.55893371699542149233508325778530
0.69676342028914373116776914685033
-0.74500669722068668665571067322162
-1.37675293347193616888546330301324
-2.47397905817982355358708446146920
-0.49960197946632411980516508265282
-0.10507801302104836926876174629797
0.87376510719494171475218990963185
0.29415043042570182540984546903928
-2.24806924678470920753170503303409
-0.07302606348501797239869404165802
2.02768047448857302583746786694974
0.15481071880452840217046173165727
1.81790819485893062612547055323375
0.15797690467522018664681127120275
-0.28833827073545315045066672610119
0.00951907337121739825780419863577
-0.07116074195323800199997066329161
-0.37806365670790476052331996470457
0.51411835548594220224316586609348
0.57800734490183003355667779032956
-0.83331467945817927489571275145863
1.92886734946200077978062381589552
-1.28774834922463377040457999100909
0.69845684111945227634521415893687
-0.95172315985703270779794138434227
0.58950158036714683795764813112328
-0.31312385758084138043244593063719
-0.41615016163509682689536361976934
0.40296073659293840663053742900956
1.23902581676826351042564056115225
0.66873466285318861057618278209702
0.31422961982693065063898529842845
-0.07377445368209985254726035464046
-1.81438509590388696857132799777901
-1.00900980202669732221920639858581
-1.78025144141768398853287180827465
0.47716898709878186046751125104493
1.53173152724724292994551433366723
-1.00397881581752979052168939233525
-0.88197054621741610702656544162892
-1.02057769847037693722313633770682
0.36839308781794499747519466836820
-0.49342821335281655814597456810588
0.53167394296055336955220127492794
-0.12686113124516298911181877429044
0.33838083871458202178672536319937
0.37789703722366885241257250527269
-0.89212601049576611966784867036040
0.86908383090371099655158104724251
-0.37945017814786230481161055649864
-0.52441202773003037229671008390142
-0.72457778970185748868004793621367
0.52640769501855499967746254696976
0.80076594739127715527615691826213
-0.12166709645805207085089705287828
-0.71940235074746627930153408669867
0.80647217524071945771169112049392
0.99379675725796545737722453850438
-0.05923394830042105069223268287715
-0.22888402770571331101834289256658
1.41686931575348151746140956674935
1.28559483461073642551752982399194
-0.01151102984831671449672541029940
0.91035640824606944843111477894126
-2.57572292600830943243295223510358
-1.65699138036361404147100984118879
-0.25739940266019573078537518995290
-0.76632625162766010440407171699917
0.12603200218965615597710439033108
-0.10735610096792985723723745650204
1.62500428050471801277865324664162
2.75804809932902550428934773663059
0.82852884059687958995255030458793
-1.23931134688658572962083326274296
0.73372606885052737979435732995626
1.31923518100072834080549455393339
0.21409198415483735034037238165183
0.50413277953201818259998390203691
0.61297583599315796920592447349918
0.96734051225151673758517745227437
0.88573173856767428713254730610061
0.72500309344088686991369741008384
1.51281663357652784718254679319216
1.35088782529679818367185362149030
-0.26690174574084452041589088366891
1.20910115613326496486479300074279
0.84326325162222448561522014642833
-0.45605931675704081129651967785321
-1.14276744078578995633677095611347
-0.44647080789924359356390937136894
-0.88620819731987110490223358283401
0.18990125798701507076060579493060
-0.57650844942029166872998757753521
0.50653533701920439025201403637766
-0.47614626226662648544873945866129
-1.00640203998542920871273054217454
1.41104983604069467162389628356323
-0.05347415190493998160548017040128
-0.36892617315270687106121272336168
2.74998011511895246172798579209484
0.15682437809056667954443753387750
1.27336979507771541619831623393111
2.06963818714314795599307217344176
0.32565584059225149982097491374589
1.88668541005389434062067266495433
0.00159411162874432900567189808072
0.76045210172960131522756910271710
-0.91261675966390520819970788579667
0.71321323790605151149435414481559
-0.56725822902665123947940628568176
-0.20887260633551815725006406410102
-1.82779324273832455283184117433848
0.82745225345880679679311242580297
0.90122281533016435073335514971404
-0.24251509854470396088110817345296
-0.93914951478681785168589613022050
0.18554293950395014944909632959025
-0.10233812726498599243729614727272
1.01221182473835513704329969186801
-2.46573299271413626243543149030302
1.57250711456909608720877713494701
-0.75352616330896693419560961046955
-0.40663450311684151694535671595077
2.37558036198913491432449518470094
0.62052202091843822184813461717567
1.17744608871303602093405515915947
-1.36125579156093756694190233247355
1.40553348763606966720374202850508
0.14173447183676074478952955360000
-1.19706102934106262125624198233709
-0.85042320790345038439284053310985
0.37702540787716837256127178079623
0.44901838712999003755399485271482
-0.14190160915861063650744711139851
1.19713455893578801791932164633181
2.39115490822755916155983868520707
0.32030034961542330762540586874820
-0.64911311964075801839157975337002
0.01211883898359141994993670721215
0.36710645141488912335248073759431
0.31278554138434117026790204363351
0.38715588598787337160089805365715
-0.85264782879950584693062864971580
2.49867892648651901410516984469723
-0.22826226765725551870467313619883
0.43942150378055694348589099718083
-1.05574661553667659141808599088108
2.40201493209806882234147451526951
-0.61708405395460996789580576660228
-0.52507923920058241495922857211553
-1.11214989263252106432844357186696
0.14351261395662365250025516161259
0.12133016183016537281602609255060
-1.28367741563219572853427052905317
1.69295751269175354103424524510046
-0.04763757269078471023870946510215
1.67806160176700247532721732568461
-1.94607863807206382666947774850996
0.58359845370060658975575051954365
-0.68723702195401203951519164547790
-0.02010489066710017397321408338939
-1.13483049297126914467526148655452
0.20895343231123175709029737845412
-0.21581764272746234434308121308277
0.03399203440582442697914800078252
0.16532236190962892874445344659762
-0.75877698486681766087968981082668
-0.88685259829374896156650720513426
0.40708520108859685970870145865774
0.74246789279616010048812313470989
-0.41330701535521030542952303221682
-0.24385855692727240184858317206817
-1.65870352217805372418979459325783
-0.87021790157609002491767569154035
-1.16502130030684836192733655479969
-0.35457904651999638812043258440099
-1.24376139796263585068913926079404
1.14395351254281862907191680278629
-0.22214830284135947402468502787087
0.88656865421591335429951641344815
-1.49586558905038891076344498287654
-0.92023775030330556834456956494250
-1.95813842750231037470598494110163
0.00785978142352734832076777138354
0.31411329124180092930984642407566
0.95216156811839425255783453394542
-0.76199781515824738242770308715990
-0.57800724296970162896514011663385
-0.77904534721429341548315505860955
0.57906055835791347963237285512150
-0.35536362890025319227760292051244
0.74074367182644085261244981666096
1.05459872190755543641671465593390
-0.68534048243469325445431650223327
0.22683059325841939402046421037085
0.05197367794723830453085255953738
-1.05239814828774047583692663465627
0.56544809180010013882622388337040
1.42496217319720819283190849091625
0.60531208529747970725765071620117
-0.59857130543408187950404908406199
-1.03954137979219418674858843587572
-0.71823659485555679804491546747158
0.05742680000840391651983907195245
-0.00629820923986608351835547736641
0.60253188533183044128804795036558
-0.53735405460370744279430255119223
-0.40520347297327646840514603354677
1.02470374412813747255768248578534
1.13181665512388818228828313294798
-0.85764738510906024515634271665476
-0.77761049276816296416114937528619
0.47131627354986782574286507951911
-0.77488778524084089838197542121634
-1.28396201885787997198917764762882
-0.08963131148131928127575918097136
0.87193833094070305467226944529102
-0.01906408658457449389889148960719
0.13322646618338915280865819568135
0.07150701316474189495053792597901
1.81983521219884281094891775865108
-0.95746306375716461189995243330486
0.42515296107301203676342993276194
-1.02896017290864771887015649554087
-1.08236529362433886447547592979390
-1.19118949758800352078935702593299
0.54790443651273357250630624548648
-0.03016315394284488360376883520075
-0.56272893288369907338619668735191
0.16566151653841085233942465038126
-0.89812889828812336734387145043002
0.31825379150412902440336893050699
-0.29659192710349974175798593023501
-0.85683206401427958187611011453555
1.28042133430387661263694099034183
-0.43993633360810707744192882273637
-1.44185463925018164665914355282439
1.53405785469868916059965613385430
-0.38149066853285551470520431394107
1.12450397680764857533119993604487
-0.10965618275811322979151896106487
0.33462218251895248233296342732501
0.87470230492354106299757177112042
1.10199681129163362669487469247542
0.95952680239705467890587442525430
-0.33142378648805748131422888036468
1.37603401876258790714757651585387
1.41286214738816040537017215683591
0.39918467604814017457570685110113
0.13051833003255433607314728305937
-0.59974625662172054152421196704381
0.51259492381589144560649629056570
-0.60146333714734467879026169612189
-1.46290015048126154084684458211996
0.43634929457477034109302849174128
0.59683973264917444812027724765358
0.25741648209017453652336371305864
-0.51030312127642984965092409765930
-0.49773418801130692168399605179729
-1.54857835088598294603912108868826
0.89102061628332873688407289591851
1.22951271269482265147132693527965
0.81734742472175669902867412019987
0.72048164013339865974216991162393
0.94245206133273773385639060506946
1.58840186903482338820481345464941
1.39502830033700742085045476414962
0.18859048706034955977806077953574
-2.92045728723543840388288117537741
-0.47847067581693425442068701158860
1.22184017725887805738693714374676
1.37224824376507359424692822358338
1.05803947577781909394900594634237
0.37101930024151796860820695656002
-0.10667484850081772329577489699659
-0.52292310227282756684985542960931
-0.44066564933524010605481180391507
1.21245135248584157139362105226610
0.90018632628506067838713988749078
-0.41490944807074581213157671299996
-0.27423129541915741702595710194146
0.99945012277270561806830073692254
-0.14927266285537252321624634987529
0.10971656424392302320303116403011
-1.20163775423370311479231986595551
-1.83887998856746115450278011849150
0.26635297153836762218404032864782
-0.65590485731368186606005110661499
-0.76051245160734726180606912748772
0.06228355918922216793998103412378
-0.29924287791709008876850361957622
0.56987045245185008468524756608531
0.54423293291963670270661168615334
-0.31165371311995354597357277270930
-0.15953800721092764591801937967830
-1.27084022528674922547509140713373
1.42792772234121501107040330680320
0.23378037412411215023588795247633
-0.78290507531991793133130386195262
-0.26558507797607977529708023212152
0.92327322444573045601146077387966
0.37212121830721900384020273122587
0.14994335818937265525363500273670
1.11326877770667076461563738121185
-0.73930368474485019802955321210902
0.87185193927036541694519655720796
1.51671793128665166605628655815963
-0.78281617192069363753148536488879
1.32446147201528141579274233663455
2.89574525086223211189917492447421
-1.68727357375150033291788531641942
-1.48944449865416239653370666928822
-0.53131116864546923395096200692933
-0.22886564030649242384996000510000
0.10374517106459532622686481317942
0.08142671340932854107119709397011
-2.53871257721798437856364216713700
1.29143354615558925146956426033285
1.09464543260369917554442054097308
-1.39992288679659404593280669359956
1.82512341499408381473301687947242
0.65579566827602830958454660503776
-0.10918528335903766868231201669914
-0.24767633386972329190278685473459
-0.77704417519371449252219008485554
-0.25239967439013261119029607471020
-0.81470190178661350266509089124156
0.24719120048624926289093650666473
-1.05587020698318201361587398423580
0.27147026815118352471856155716523
-0.12857354362918391177394994429051
-0.83726506453729876433556000847602
-0.69616368378871917865780005740817
-1.15051776691232343630133527767612
2.13607500965468499742883068392985
-1.19539038953720133662272928631864
-2.11117967403086082001095746818464
-1.51691263300801071345347281749127
-0.09416919855372019032557773243752
1.47737553128993415185732374084182
-0.69755197229129539682190852545318
0.38809868674367248297940591328370
-0.75987820770651470780876479693688
-0.86715235537998835990691759434412
-1.27527877184157278911413868627278
0.81709362724547540679509438632522
0.35164783982000963336034260464658
0.33375803626299144211131419979210
-0.22092456473698865448973549518996
0.36227323317355514253890191866958
0.04454647687848242720853875198372
1.12924667169318460047122698597377
1.55939536641837239727692576707341
-1.07702483426682293909948384680320
-0.24229656741477378911753248758032
-0.10534515231048829919657805476163
1.38688198238091509040259552421048
2.12865671852474136471755628008395
-0.38604681670721907593701871519443
-1.74943629889483753814261035586242
-0.46002441807174454524442808178719
-0.27294993215893004201433313937741
0.51012290039568275457071422351873
1.24119278807625832428129797335714
0.02933569597411040189016695478585
0.08650265018866455657420289071524
-0.12406741442828614352400506959384
-0.81140300560508493710187849501381
0.70085438879561234859494334159535
-0.24207872287001236388803704357997
-0.87928115634181913673472763548489
-0.40577346197741970268424438472721
-1.95969462666534810502128038933733
-0.66065569829387826850108922371874
-0.24662133811534317495706147838064
-0.25212917402464202210055077557627
1.03554820209316633672358420881210
-1.45055030834905096526199486106634
-2.94595342805051929602200289082248
0.75215169302739459666895527334418
2.05860116566699780094040761468932
-0.46756762628632719813737139702425
0.09839437658903905925544819410788
-0.49126064790059936759902825542667
1.92372298751349557477396956528537
-1.24498708620799281021618298836984
0.46331686222429818711177063050854
1.20952112831867708564459462650120
-2.58157356618680955406830435094889
-0.78155850202854537656094180420041
0.31165680142410961961374482598330
0.06648602640272617547712030727780
-0.47678096626157617787811204834725
-0.32091450592989873014104773574218
0.50652052987343687551202719987486
-0.24660697495684658075987272241036
-0.41695843233702939434337508828321
1.83521361396343851701828953082440
-0.32873684820070125933710869503557
-0.53995136478458483075826279673493
-0.02168071432521532712622835958882
0.01974184535252394151472188355001
-0.73230811707366683105391302888165
0.05407648542147022036052916860172
0.89948413419886319442042577065877
-0.92013336308695947707292361883447
1.81361546336382706279266585625010
1.36602527180285404639903390489053
0.34110778661874435746526046386862
-0.84411446039552684439399854454678
1.29443513093616791032047785847681
-1.05890437716317076244365580350859
-0.26459843159402146595127192085783
-0.71559190788006632466533574188361
1.11374238937644753910660710971570
-1.55249107188963053616248544130940
-0.81437245423930471055484758835519
-0.65700238305554381490480864158599
-0.78538949967862881074154302041279
-0.56199598008074747035323071031598
-0.28073527029778277963600885414053
-0.39533406405818183326772441432695
-1.41722813496565835933438393112738
-0.37817067552524286089266070121084
-0.78306174846072940098906656203326
-0.92373716165659236487783800839679
-3.01054421350762879683315986767411
0.37058185169881024956239912171441
0.64135242080947818532621340636979
-0.43021241689561601218017017345119
0.08847023913613887013962511218779
-0.12312673459456385804955402818450
0.39086586431232445137951003744092
1.88799671500041799099278705398319
0.44514468213376673366710178925132
-0.26693259852820550026564205836621
-0.67557909958611939149619729505503
1.86667244342215687957775571703678
-1.00316314024838515450710474397056
-1.51990386567238489057274364313344
-0.66467530552158160528364305719151
-0.46474108556420795634878118107736
0.73306950638125378816312149865553
-1.02417924657415104761071233951952
-1.24624065162983765908677469269605
0.57008115643508860959087769515463
0.69843446268928088827010469685774
-0.45666360285082341352591583927278
-0.79251735062994199676467133031110
0.26524533697242613783373599289916
0.59628028050472670074100278725382
1.13463549636887806038032522337744
-0.34803828674725784120269622690103
0.49544442443209502080492256936850
-0.38309273612943006703801529511111
0.34218896118383529403317311334831
-1.45650013987214510535750378039666
-0.00432482444591269880873607434069
-0.87069417196077791842867554805707
-1.49553272129732128803425439400598
0.20423702231534796025513855965983
1.16492377334540231359483186679427
-0.18488526087171355816174411756947
0.48940371268214388766892852800083
-0.39292671272156959316745883370459
0.04028588252791510254668949642110
0.27222311553105876802405305170396
0.06773214674012445479789334967791
0.08632629537952013487611679920519
0.22602477708694088120999765578745
-0.65197470744396013309085446962854
0.33484870659810467286021662403073
-0.53864867721131415301272227225127
-0.24602497309019119575701495250541
-2.00330124397010989056866492319386
0.40925290489446003450169087045651
0.71172648073602384766189743459108
-0.31249891398755247351459729543421
-0.04000300322247755252513812251891
-0.68331719491772957564279522557626
0.03156457084170748855767030249808
-0.99099423640565664772594800524530
-1.12016908776921453316788301890483
1.13049587366357284778928260493558
1.90194250475888693152626274240902
-0.94798324674612066687018341326620
0.23445426496912574743092250173504
1.10820110281153327846936917921994
-0.48687213553505170882118591180188
0.92986302319850511199916809346178
-0.58722124245737439274250846210634
-3.04967298025044586395893020380754
-0.08347787880036304508646338717881
-0.09500703159706169742548809153959
-0.69884309246186304687142865077476
-0.23038439550156938895320024585089
0.86992584483693513597302171547199
0.42221874022198280229645206418354
-0.65995141321892247798786002022098
-0.79309860080236949109178112848895
0.59134091865631777107381594760227
0.13562280078484678647043892851798
-0.34279980274438770493361516855657
1.37235469281794930651585673331283
-0.83186548568661722313777318049688
1.16441581116857029165601034037536
-0.41324165948118640745434504424338
0.69884014439535080409626743858098
-0.04314097362526191775655703963821
0.51641679745153656888589921436505
-0.41314582513432623889215733470337
-0.78896570086668049714972994479467
1.02405097093073571556942624738440
0.74042826165378872182998293283163
1.29096283637421427314961874799337
0.18523213306185484783306094414002
-1.06714703574623803739029881398892
-1.07954697921241349334309234109242
1.48716687890417009754173705005087
1.25262608808998532339273879188113
0.87808494222820310248778241657419
2.45578319372281628218956939235795
-1.00277275794058828850552345102187
1.61303504540777420395158969768090
2.74957152938854054724515663110651
1.71998151385895048370855420216685
0.33976068810697468425274792025448
0.24078413597330272644114756985800
0.69743779819968920730133277174900
-1.06351056541631705520956074906280
-0.54431085060425965505004342048778
-1.14970542986542856311871219077148
-1.00539897235912345507813370204531
-0.22128692962755075468450627340644
0.97171963806136651964351358401473
-0.79009884250057771382103055657353
0.03041921039055662384642531037571
-0.21588685117418277004119886441913
0.38717556194959157345181210985174
0.55837728851719592437774508653092
-1.24823495578251342230657883192180
0.08612136992938287938237351681892
-0.45680498821163895151187261944870
-0.11085708304296600090754765233214
-0.72370811084070507668286609259667
1.16042835121245246909893467091024
-1.14032366564994047664072240877431
1.67795897775012869956867689325009
2.24086808682361349198686184536200
-0.66075422318517540443139068884193
-1.49098407530339649440520588541403
0.55410582026710009095893383346265
0.66916281428192969649160204426153
-0.59303470494765109233270550248562
-0.54846344882527120478954429927398
0.12835524666347622457784893867938
0.59087518251587411999281584940036
-1.38426614277241566419718310498865
1.17660427601900363647757785656722
0.87944438937039792758554312968045
0.64489969572160021904494442424038
1.44432585400804480713077282416634
0.64121131369058381732628504323657
0.78932197130684911279274729167810
1.61891054957608782061129204521421
0.96781333928809676336868506041355
1.95665059300735166836204825813184
0.83352095037619911011006479384378
-0.51749899820158251628754442208447
0.48623134822369723506696459480736
-1.40826710010983946474993899755646
-0.26282354503677618495771639572922
0.30906867968998275042480372576392
-2.02642428652976480663028269191273
-1.56195985925663483051550883828895
0.97769677844033531233236544721876
0.26821751383513658950619173992891
-1.27788706765822923649977838067571
-0.23874130952011410333746255219012
0.95055739090241231359357243491104
-0.79671545542794008909481817681808
0.80628191770387058756597298270208
1.75277810752034635122242889337940
-0.24424839623754840411962163670978
1.65932601466646256760384403605713
-0.73331302734132375320541541441344
-1.08760244632801894582030399760697
-0.11641322412544007069978846402591
-1.99441183655052878265223625930957
-0.82659997027483900211564105120488
0.75491892192738974110000071959803
-0.82692326807806304511672124135657
0.78602426812287351509667132631876
0.97629690832337812089747330901446
0.74726330592674505837180731759872
-0.90798578569634535995191981783137
1.43216781992135056000847725954372
0.59763098201023945321708197297994
-0.06357509995193029450621935438903
-1.29088373895901464827318250172539
1.05342477964307090765316843317123
-0.28957207639991944247981336957309
-0.77172309430703567301179646165110
-0.53631066316234454749434235054650
-1.29343636793793614891967536095763
-1.01507156385721386548937061888864
0.68589224609109833430409253196558
-0.02267629871312709308184274448195
1.18516713460862788132033074361971
1.71151377812004445999605195538606
0.41990109076189635617382123200514
-1.44933198234311277907693238375941
1.83613398991333487408894598047482
-0.73536050593862167801262330613099
-0.54635995213188959240824260632508
0.38332566615483909533423911852879
-1.66923484625528995017873512551887
-0.25839340595580884141213573457208
-0.80805875801544035930135123635409
-0.55185153699481270805904387088958
-2.06476585525831790590700620668940
2.10336093819694358586502858088352
-0.55615437183999738568473958366667
-0.46357773236767513269640517137304
0.22361861764498985882809733993781
0.35271097096559306249830001434020
1.37227301020697534106318471458508
-1.19066226120473661609366899938323
0.64300519095100383548668787625502
1.20953856801879222615525577566586
0.61957824466786726169686971843475
1.06102038054952663159724579600152
2.01469204861255457572610794159118
0.56709601231512529739831052211230
-1.65049377370977046197708659747150
2.13390160627203240295557407080196
-0.94115934513529553306909747334430
-0.91404068906512969672206736504450
-0.77618234484373560544412384842872
0.79415902767062895861727156443521
1.36634077447728907728219382988755
-1.16700749997603314689342823839979
-0.70557691747474871046819089315250
-0.32996104690574662443580677972932
-0.33003363916761219165607599279610
1.17692720953559026852985880395863
0.91278026101091225275041551867616
-1.88737885837997443339020264829742
-0.43281355900020385130133604434377
0.05645233939670581818637273840977
0.02941356315206072186141383895119
0.38169144044617575595168545987690
0.76790763174263099166694246378029
1.75471552132958019676323146995855
0.34866008082241672916268271364970
1.04882094057035302192559811373940
1.31411537145679591098712535313098
0.10839170465473350890572845628412
-1.63281348236815682106737313006306
-0.20290872829933123688839202714007
0.69567710033442409223169988763402
-0.46007298566728010991155883857573
0.23680624950341219725480357283232
0.38481151377085215381512739440950
-0.15661310321902979780794851194514
-0.41438281834323720254076306446223
-0.13526970957888639901511851348914
0.08514575205237380484124543045255
-0.38971595234208339375570062657061
-1.16726202067460915756669237453025
-0.17277060842691271957960452709813
-0.05463118548434881677211549799722
-0.23601105364039040579449135748291
-0.41994727057775516065873944171472
0.96000792626716091593408464177628
-0.76495696431699400363868335261941
-1.86960020404819604600277216377435
-0.18382112689021037899017585459660
-0.94239046500374246129183575249044
0.35613361347993910399623018747661
1.00065632525041725564562966610538
-0.23747560729841798998762669725693
0.89570399610935969025860003966955
-1.43419805467709648993945847905707
0.46830385992904144387694032047875
-0.62373948839315906944591461069649
0.87608505303978501110861998313339
0.59200969600202268949828976474237
-1.10051002546530063419538691960042
0.79457217268485735850447326811263
0.50456851834540472623302775900811
-0.70545791336045038377733362722211
-0.06043643366949831563506023712762
0.77156638583233394523830384059693
-1.87641440275465587461667382740416
0.59630417159397353099592464786838
-0.80754434160513410834170144880773
-1.05887097123749596150332763500046
0.16781443132059409295564478270535
-0.50071228211516294326344223009073
-0.73797112856794644386582149309106
-2.40437176897639171002651892194990
0.19755935537568986015699579184002
-0.42923257137427067720025775088288
1.14783228345680288207120156585006
0.42459949609080122057136463809002
-0.58816069258684833265249380929163
0.69254144661307714958553560791188
-1.86397750623465419117508190538501
0.07311958095626622244900261193834
-0.67449744846432224676391342654824
-0.62817554440073064547789272182854
-0.28927060524623054993398341139255
-0.78191069194662599084466592103126
0.86598481204554766943459753747447
0.23362908634905885096877398154902
-1.05888848180058947612280917383032
1.86857281320693302539837077347329
-0.63241984000106543639674328005640
0.21828181755651332451861890149303
0.59406413582201711420793799334206
0.80073581086664058492630147156888
1.87289503164011361668883637321414
1.10523832081350525946561447199201
-0.12054702514987168660010041776331
0.46988484793176488185650896411971
0.11786733426970216753737474846275
0.52201370072750397088867657657829
0.21930315595957680652183796610188
1.71818973592113244386325732193654
-0.98789191150478716796357048224309
-1.19404877071089265960779357556021
0.93875451863189807166776290614507
-0.25757809166825446078874506383727
0.09957815716313322962349730005371
0.69494854364341063224230765626999
-0.57425221202664178399288630316732
-0.65692816787060892558258728968212
-1.01304621912503600711374929232989
0.93087114676094306897624619523413
1.15060937913895133810626703052549
-0.02995815954515994999907135820649
-0.18403654354820397909264784175321
-0.05368308107866726075485530600417
-0.23051119927070437554128545798449
-0.45945369422473580911514545732643
1.64877074436898785059213423664914
0.00650140016302659228680793646049
-1.75110835789271979123782330134418
1.06753349216805903942884015123127
0.62764661243293484726990527633461
2.10138583979716697669459790631663
-0.49680141947424988346782015469216
-1.34929059819442853651594305119943
1.34816955494420098737862190318992
-0.57072225281445199129848333541304
1.40459028680984276959975431964267
-1.28640115299005297622159105230821
0.75111195249575135601816100461292
0.31058415644655779086491520502022
-0.63112101661075259428912431758363
0.06888607895836380834442280729490
-0.60607498009018601070607701331028
-1.19947353514523058493068674579263
0.41785753546367027100316704490979
1.66537947925296547779794309462886
0.08561022623586279911567231692970
-1.67117021230485551797073640045710
-0.76489029723505919111659068221343
-0.00523231619115271592845850534559
0.77717041946459408663372414594050
0.78659602224446800722290618068655
1.25080399719689472348704839532729
1.68067267841687395524274961644551
1.01697707984095453426220956316683
0.00754405035352322898140053908378
0.57228602305120335191901403959491
-1.11827346046715225824641493090894
1.60420684195032814400860843306873
-0.12079944078466688106576754080379
0.11083891114399187227679277611969
0.14071222577662076402837953992275
2.01379669947403794338924853946082
-1.03424368394387022895841710123932
-0.19097167930437136673660347696568
1.09085110906615057047019945457578
-0.27961415298548342178719394723885
-0.27382977954841369871985534700798
1.23596088980855678407522191264434
0.94088755462607909230143832246540
0.95051211581726968713468295391067
-0.73730152590666009349007481432636
0.05474982186431619907152068549294
-1.05992700987182408844944347947603
1.69198984817104802758080950297881
0.90716562848735171620262462965911
1.35312564878628527331727582350140
-1.52065061308282101215638704161393
0.79473568532198879399430779812974
0.08704250292404130950885132733674
-1.20990249172409525257876339310315
-0.95239933432850198968822041933890
1.43973739144087509167491134576267
-1.13253603340248765185549473244464
-0.62471821984912090375274829057162
0.80848003913096977424146416524309
0.68387991791106161887370262775221
-0.67860464662777641997593036649050
-0.93200790511379594249774527270347
-0.31424833435038856954690800193930
-0.59336524117450295534581528045237
-0.60270592666235034418065197314718
-2.24859926656972852754279301734641
-1.08720073674405459662750672578113
-0.76303492911416970212457044908660
-0.93366217768346149163960490113823
-0.10996921984784668868684320841567
1.31663341234777830912605622870615
-0.14721570655269272664966706543055
-1.65270692717402067906107276940020
-0.39021678411210047876522821752587
-0.17360706829015259966553230697173
0.71027263265846574125106371866423
1.38416012462462467702550839021569
1.78850076376758315710446822777158
1.11081912671452154306450665899320
-1.36139740329214009584291034116177
0.15398877264864599401228417718812
-0.63992604178687906291145282011712
-0.06442286425022951401597737230986
-0.21432487703751712526667461133911
1.80073790605974837220060180698056
-0.63598684489499668348599925593589
-1.26657760256699569723082277050707
-0.25435242210035485799224375114136
-0.71575275085802625429920453825616
-1.03758760428530827368831523926929
0.44782252212176343331151429083548
-1.79688632696080130557447773753665
-0.29985369157327312894523174691130
-0.80089348202875187965332770545501
-1.31359733927556932009395040950039
-0.25136414535767065414617604801606
2.25408431774704842709411423129495
-1.46090169879891673687666298064869
0.63674294711345269526248102920363
-0.24303711535857924763703863391129
0.34565531032058138816154269079561
-0.14632287988339851003694036535308
-0.37197341705349923346446416871913
1.69768393157250740976849101571133
0.47010344337504611500477835761558
-0.96277108711088799086752487710328
-0.46832101040976942263327487125935
1.10182941876542939141359056520741
0.66003728496646840717687609867426
0.23104466569927747943147267051245
-0.33132950563163943158428992319386
0.53631528177423404279977603437146
-1.06758056888497887548794551548781
-0.65264206168774963057188642778783
-0.99772475502831781124513099712203
-2.31459642438241086637162879924290
0.37413007310295620655438142421190
-1.37681605231983783532712095620809
-0.34623996370392617905054066795856
0.43383616137925284927945313029340
-0.15564528953897216467794351046905
0.92328309009368592086275384644978
-0.10073056486251759367167579739544
-1.03045189018111083001372207945678
-0.48221748764016264532372701978602
-0.50659974609167468528880817757454
-0.83175859465730694886076435068389
0.21576115888907951290143216738215
-0.11062719844648163936007279062324
1.50907700470397210246176200598711
1.35760740096308496482890859624604
0.28767490154951608216649105997931
0.20290346941399622915369604925218
-0.00548120967545065625181610613481
-0.30402221316786431914991339908738
2.29500673567703339372769733017776
0.08973450387301021291541758273524
0.94071742562350857408404181114747
0.66939323832674013647903166202013
-0.08497473042962506994957294637061
-0.33481240855182842208748184020806
0.13766838104570428003015081230842
-0.22219668015469756783275556699664
-0.98878745318264138486341607858776
-0.50895211919799565603028668192565
1.29657758252255361774984976364067
1.44352405328174926424367185973097
1.03905424926922496098313786205836
0.36895553175255108024899186602852
0.14311648961620676567818577495927
1.22123681283573315425883265561424
0.16673940897731331922670960921096
0.97905736218090044786777070839889
1.04246342392428803513837465288816
0.45899350096358337847135544507182
1.28466140127508143820023178705014
-1.30459280740837568757228837057482
-0.16655338609140102335004485212266
0.85015619223428773310047290578950
1.14345599545261111806837561744032
-0.82351781701744186658942226131330
0.12795829293392405046070336993580
1.95433114730784684986986121657537
-0.46222523368489054629293377729482
-0.20123413414506430285655369516462
-1.09854376302828393718868937867228
-0.39732816216466482206470800520037
-0.29501281763813791414463594264816
1.29828052219465717165292062418303
-0.60706999350622403710531216347590
1.28265675815231494638624099025037
-0.19009795138400351066643167996517
-0.41029607572293869122148635142366
-0.62406334089948023446936531399842
-0.28476171665340999084037321154028
-1.53406316274978005154139282240067
-0.36866224851171536247562698918045
0.35544503808480726325669252219086
0.75498227051571742407531928620301
-0.00161711659429450232104696905111
-0.28568870620321151765352851725766
-0.19080151812274059874852127904887
-0.92800519948418525029154579897295
-0.02173383509567549526364516054855
0.45193764113002965476795225185924
0.56638558703721553211352102152887
-0.93839360564244622686658203747356
0.67378435550419524258103365355055
-1.58046772616219288742911430745153
1.01405571137136640835763046197826
0.06707649878012497679513614912139
1.12198994480343650081977102672681
-0.59565473698463522467250186309684
1.25269201997534485037988361000316
-0.09317714683766163685785244297222
0.55254794428292441921257704962045
0.44356523136931752526734840103018
0.09385669444176811260227566435788
0.49589656536144999243731490423670
-0.58532484803911799531306314747781
-1.83678398444788548715678189182654
0.93187722366773784177240713688661
1.70188403731662751816600120946532
-0.26049170347688965776455916056875
0.92436441028006655074023001361638
-0.14809318971751722626706282426312
-0.09462920937737899496067228710672
-0.19524785027943994397681137797917
0.71619677036859463736817588142003
-0.07589698443870791788601337657383
0.42163237624026184136027950444259
0.37672380998864335444054063373187
1.02357496560269023433420443325303
-0.31282016753069824543942445416178
-1.53614484716868116009891309658997
-0.99508850591361053261607594322413
-0.02465102058522387548644694277300
-1.46460967264899366568897676188499
0.83108649706253312494652618624968
-1.67603875198870833074238362314645
-0.31151332947950371998757645997102
0.65411480168001445711922769987723
-1.21612974559430786491986964392709
0.60660205173142711654321601599804
-0.03099514646396235584280276498248
-0.24711151131777647771414763155917
-1.26419596613624474201742486911826
2.22236022520817000369675042747986
0.45737297382601654893719000938290
1.44352329624971420507506536523579
1.37142378516200702520677623397205
1.31713747818393356325827880937140
0.18182822529354469853757336750277
-0.02670272359014649182773482039011
0.57040320117374498920526093570516
0.68880617780761133062128465098795
-0.27011929941751833261776027939050
0.62114196719656966649836249416694
-0.97311546918164748554147536196979
-1.23322886298119693826436105155153
0.84459633610661388747331557169673
-1.10703694786676321015761459420901
1.51630774892129083220027041534195
-1.33147814986375578882871195673943
-0.88913158843194595171155469870428
-1.50426908464088660011270803806838
-0.10968185956262271885108816604770
0.48704906668184855256242826726520
-0.74630233158707293128486526256893
-0.57572036880575305772822503058705
0.68722651568922499265568148985039
1.87704233637476125551302175153978
-1.40027243528890910084783172351308
0.01564588100149946758854468953359
0.14391887240800207981017422298464
0.45022138429303643070156226713152
-1.33431927593086352423767948494060
1.19687738473477600642524976137793
-0.91492876661182809261418924506870
-0.57960971131175353932007965340745
-0.04200051317304660108975511434437
-0.05750297384244317661083911730202
-0.01471190490870285388913529800448
1.06406520599422393935640229756245
-0.41017007650164211129961699953128
-2.14048536778667530811048891337123
-1.07272843623747382579836084914859
-1.47885230144210733094212173455162
1.18090725603332136195433577086078
0.61277200661913544532666264785803
0.52249370891361535118591064019711
1.17659304195803993131619336054428
-0.63843398330969158838144039691542
0.25899890625708843483465670942678
1.49738042478161492709887170349248
-0.02101595034494282629444761312243
1.14417348011638031479719757044222
1.97222286522068679381902711611474
-1.37485382341664164052019714290509
-0.69051529548471057839975628667162
-0.93170736676437060364008857504814
0.74695209209097934710541721869959
1.07973888472220869161333212105092
-1.41782874516157364475077429233352
1.56023902831511174227330229768995
0.32428378194274976031863388925558
-1.35936717879059365543525927932933
0.29152422211148615316389509644068
-0.29188239318847297720793676489848
-0.02505018638550145226862042591165
0.12920985558005887439136927241634
0.17522788495325775093292008932622
0.75951297577869991695109774809680
0.41990088242918766070488345576450
-0.28827905281670757053902320876659
-0.47819066012299749068859000544762
0.08638341077651721933161610422758
-0.56726698003811693027387264010031
-0.19813452633995085050422346739651
-0.61714893407210091869075085924123
1.34672812064222435779470288252924
-0.32937953898896332738388537109131
-1.69999755699312360412989164615283
1.83338238739687509060161119123222
-0.25166991424302381785693683013960
-0.88619813085798870844200791907497
-0.12148907379979366483180314162382
-0.61249130606172030866218847222626
0.42792226498806151813170117748086
-1.44877276970984425474853196647018
1.60173920158101301680630967894103
0.09866388887998471524110044583722
1.36356049153056213540935459604952
-0.69716214171326273962847608345328
2.06972673542256346834733449213672
-0.32342342452280276043907747407502
-0.20639971828440512036095810799452
0.30043067153969255089762668831099
0.50955957096948123474788872044883
0.68827091409708329727834552613785
-0.80860196902111625139042416776647
-1.06498815437331395550302204355830
-0.73239074164530726385180514625972
0.22065673585110895382754847560136
-0.29874536668247458903735491730913
-0.07098582192383029454418874593102
1.55055233473474141092651734652463
0.26673679452305248949173233086185
0.40416514021185062643937158100016
1.48448718518039446401246550522046
-0.97655867170899179896537134482060
-1.04742899372215680919850910868263
-0.68811043560267937113650305036572
0.44723933465484266847056460392196
0.37207910651446596261848753783852
1.23914168613433073318219612701796
0.28485848398585150720307979099744
-0.16896730062141260275687670855405
-0.64286892613927482109659194975393
-1.28600918072716341455929978110362
0.81256849867664482367501932458254
-2.08272774064778376512663271569181
-0.88985591019158838399505384586519
1.01887076520824204628468123701168
-0.01765934812838786463484730404616
0.39732560827057533670014777271717
-0.65932124161483085522661440336378
-0.75311071858475309159786093005096
0.46520100259636154582665312773315
-0.27831560267975757883007759119209
-0.54028109430095516696468394002295
0.06679013930552185618338967287855
0.93312163701664430082161061363877
0.11229547111471704923246761609334
-0.40102895439323910098394776468922
0.21171005435159709340275924205343
-0.16302033351866990207312824168184
0.89928723018161915714330234550289
0.16301274235701221360095303225535
-0.85356465328319275354118644827395
-1.40543786567404715981410845415667
0.68512772657622733607496456897934
-0.72188250070413539916103218274657
1.41834708143877441521851778816199
-0.42891778317933526576410940833739
0.44872237978070944608433023859106
0.43187655979108935389021439732460
0.75898520074227415754819503490580
0.84119737636610270037351710925577
-0.04497939349810955306230297878756
1.83947287710061657683979774446925
-0.43425741720800759004816882224986
-1.04286737412350571929664511117153
-1.16046855909984780730326292541577
-0.28594769837688188696134261590487
2.38785698656538158957118866965175
-1.21901041233800966345768301835051
0.85277460201198684863754806428915
0.86768011420078805517874798169942
0.10191641734489044479605723836357
-0.64184447000312372377806013901136
0.03726103534090502433784308777831
1.93279221796538025479605948930839
0.85203751025415874753576872535632
0.18178052800184466009092432159377
-0.01878293765385349173291373858774
0.41239004965406611535883030228433
0.96240369632064948213212574046338
1.16803695030636300877802113973303
0.85737489761441809665853952537873
1.24534789759169539635763612750452
-0.19934112773339679458572959447338
-0.04084012455742095509814149068006
-1.50586210745917514763903000130085
0.72326268488708778114926190028200
-1.43555315569202113223923333862331
0.74516868655368972973462859954452
-0.50038836817022591674231080105528
-1.14614166730064481747319860005518
1.11211158426550760225381964119151
-0.82442371120108759452449476157199
-0.44710732806817798934417851342005
0.40253448396117336161026400986884
0.33596200056609021311615492777491
1.11637775409363348977365149039542
0.18958196208834923734976030118560
-0.23838512369765155196610351140407
-1.30518126857314475941507225797977
0.81307571182017901456617892108625
-0.75134674971435166934696781027014
-0.33885003304821015301939723940450
0.37347051455866020486240586251370
0.88522804585942593824654522904893
-2.06018883428893007092597144946922
1.57952441416225530801398235780653
-1.47807639960865389028299432538915
1.30421638635905279279825208504917
-0.32566510973544693374748248970718
-0.24649641311187059367071583437792
-0.39849493500030547243895284736936
-0.92261603507013534297698242880870
-0.52638063540081725388830591327860
0.08672704616702311963827298768592
0.27390867298904175708429420410539
-0.36468617847556750177773210452870
-1.63166519596661685476135517092189
-1.82165866265717424354875220160466
-1.27610099481348959749027471843874
1.90481504631534970251038885180606
0.49988878549824394825762396976643
-0.71193985056488273688302115260740
-0.15125825887855592899455814404064
-0.30189722595149881545495418322389
0.65186719348025767839516220192309
0.06657275946759871887437043369573
-0.01558150303594699540021828454428
0.51617480486246336557343283857335
0.77137257977926432239712539740140
-0.34366669017527040619341960336897
0.14083766541149278506139808087028
2.77724574923982769902863765310030
-0.79453889059118210091980927245459
-1.35531211613418145489617927523796
1.89801872992621478708485938113881
-0.01651872028482987905806389505869
1.76378032731740175265144898730796
-0.13243583581828960449300325308286
-1.12147573388730559251769136608345
0.72535414894508509764392556462553
-0.35586119162800455839601454499643
-0.45475309513991096777019151886634
2.58847554879131402927328053920064
2.01191747550205901617914605594706
1.57896314160336337373280457541114
0.82736402745630643895680123023340
1.16275344678342218429634158383124
0.79355149205289476910252233210485
0.39139672596726032827163521687908
0.56942831668053517368832672218559
-0.79082840418743505228604817602900
1.07687899643742368560594968585065
-1.09300106738111568738247569854138
0.60119052343184342657167462675716
0.57868138621630160756126315391157
0.36405389253347542055649910253123
-1.23267476755024318890718859620392
1.58952126945181659856132228014758
-0.96170565289088416616181120843976
-0.65560929483175534038252862956142
0.78170086897408941339904231426772
0.61723114679010737670949993116665
-2.00112052973516219012140027189162
-0.00498976423061702097083713880465
-0.02512756928380858317817470037880
-1.15068930575265149229835515143350
-0.16544364902683394991100840343279
-1.04834769988679732399816657562042
-0.64464762844703227262499467542511
-0.76557974467055878164956084219739
0.08590650469361518770661234611907
-1.19337198092791729742145889758831
-1.80673725672176743728414294309914
-0.57268270485721306517490347687271
-0.02077814147823132603920548433507
0.46324800342636607286550542994519
-2.53065522471259374270857733790763
0.58876693767623600184180077121709
-1.99868038349264121045223419059766
0.80635736075985753323891458421713
0.15721802132249554362353194392199
1.04139554371989007108822988811880
0.18683332064775556857760818729730
0.16136867977557464715054891257751
0.81102111584339342531535521629849
0.37504266287393012158091210039856
-0.22351110505486876389724670843862
1.66008517825768442399692048638826
0.72686118033967561657959777221549
0.42076344256647962849271493723791
-0.19116930716214800001218065972353
0.63447837282033936467939838621533
-0.26803016182958755431187114481872
1.73464729842618425870170995040098
-1.95742515518140436370231327600777
0.01760313541755603727878565223364
-0.02290344290919539560480444606583
-1.63003161550688102643391630408587
-1.48692770178718847162713245779742
0.46210962632686980455787306709681
0.27394771088947689197112822512281
2.05821870204184875774444662965834
-0.81243867180963580398866952236858
1.29293391289503500907187572011026
0.06120765214170667545268145204318
-0.06272593950320674849319146915150
1.17123831395755151341120381403016
-0.76847258318060795989623557034065
0.42332139758030751242046108018258
0.55311163243444227965994741680333
-0.86188999887503237040675685420865
1.95082281841689542112305844057119
-0.26874895868954490341096175143321
-0.20105787588939894039441469431040
-1.03560690309260827746129507431760
-0.51458211846042811732360178211820
-1.27020350205015719602386070619104
1.77075544065383061465013270208146
0.85519466063002391731373563743546
0.85750205909652732483294812482200
2.70444057891806810545176631421782
-0.55248569508257894256075815064833
1.74473052590212640566846857836936
0.25589299446691698980416163067275
0.68829280059866804197810097321053
0.66960126735941349895853136331425
-0.50739490909332340962123453209642
